<?xml version="1.0"?>
<!-- DTD for the XMLBIF 0.3 format -->
<!DOCTYPE BIF [
	<!ELEMENT BIF ( NETWORK )*>
	      <!ATTLIST BIF VERSION CDATA #REQUIRED>
	<!ELEMENT NETWORK ( NAME, ( PROPERTY | VARIABLE | DEFINITION )* )>
	<!ELEMENT NAME (#PCDATA)>
	<!ELEMENT VARIABLE ( NAME, ( OUTCOME |  PROPERTY )* ) >
	      <!ATTLIST VARIABLE TYPE (nature|decision|utility) "nature">
	<!ELEMENT OUTCOME (#PCDATA)>
	<!ELEMENT DEFINITION ( FOR | GIVEN | TABLE | PROPERTY )* >
	<!ELEMENT FOR (#PCDATA)>
	<!ELEMENT GIVEN (#PCDATA)>
	<!ELEMENT TABLE (#PCDATA)>
	<!ELEMENT PROPERTY (#PCDATA)>
]>


<BIF VERSION="0.3">
<NETWORK>
<NAME>HRI-008 Training Data-weka.filters.unsupervised.attribute.Reorder-R1-6-weka.filters.unsupervised.attribute.ReplaceMissingValues</NAME>
<VARIABLE TYPE="nature">
<NAME>PFH</NAME>
<OUTCOME>PFH: Y</OUTCOME>
<OUTCOME>PFH: N</OUTCOME>
<PROPERTY>position = (0,0)</PROPERTY>
</VARIABLE>
<VARIABLE TYPE="nature">
<NAME>IA</NAME>
<OUTCOME>IA: Y</OUTCOME>
<OUTCOME>IA: N</OUTCOME>
<PROPERTY>position = (64,0)</PROPERTY>
</VARIABLE>
<VARIABLE TYPE="nature">
<NAME>TP</NAME>
<OUTCOME>TP: Y</OUTCOME>
<OUTCOME>TP: N</OUTCOME>
<PROPERTY>position = (128,0)</PROPERTY>
</VARIABLE>
<VARIABLE TYPE="nature">
<NAME>D</NAME>
<OUTCOME>D: Y</OUTCOME>
<OUTCOME>D: N</OUTCOME>
<PROPERTY>position = (0,90)</PROPERTY>
</VARIABLE>
<VARIABLE TYPE="nature">
<NAME>B</NAME>
<OUTCOME>B: Y</OUTCOME>
<OUTCOME>B: N</OUTCOME>
<PROPERTY>position = (64,90)</PROPERTY>
</VARIABLE>
<VARIABLE TYPE="nature">
<NAME>P</NAME>
<OUTCOME>P: Y</OUTCOME>
<OUTCOME>P: N</OUTCOME>
<PROPERTY>position = (128,90)</PROPERTY>
</VARIABLE>
<DEFINITION>
<FOR>PFH</FOR>
<TABLE>
0.3480608197443808 0.6519391802556193 
</TABLE>
</DEFINITION>
<DEFINITION>
<FOR>IA</FOR>
<TABLE>
0.5452842661965623 0.45471573380343766 
</TABLE>
</DEFINITION>
<DEFINITION>
<FOR>TP</FOR>
<TABLE>
0.23964301454385192 0.760356985456148 
</TABLE>
</DEFINITION>
<DEFINITION>
<FOR>D</FOR>
<GIVEN>PFH</GIVEN>
<GIVEN>IA</GIVEN>
<GIVEN>TP</GIVEN>
<TABLE>
0.4056603773584906 0.5943396226415094 
0.4238035264483627 0.5761964735516373 
0.48770491803278687 0.5122950819672131 
0.42618110236220474 0.5738188976377953 
0.4166666666666667 0.5833333333333334 
0.34258416742493175 0.6574158325750682 
0.44921875 0.55078125 
0.34615384615384615 0.6538461538461539 
</TABLE>
</DEFINITION>
<DEFINITION>
<FOR>B</FOR>
<GIVEN>PFH</GIVEN>
<GIVEN>IA</GIVEN>
<GIVEN>TP</GIVEN>
<TABLE>
0.29245283018867924 0.7075471698113207 
0.3066750629722922 0.6933249370277078 
0.3975409836065574 0.6024590163934426 
0.327755905511811 0.672244094488189 
0.32981220657276994 0.67018779342723 
0.321656050955414 0.678343949044586 
0.2877604166666667 0.7122395833333334 
0.32526115859449195 0.6747388414055081 
</TABLE>
</DEFINITION>
<DEFINITION>
<FOR>P</FOR>
<GIVEN>PFH</GIVEN>
<GIVEN>IA</GIVEN>
<GIVEN>TP</GIVEN>
<TABLE>
0.5943396226415094 0.4056603773584906 
0.5761964735516373 0.4238035264483627 
0.5122950819672131 0.48770491803278687 
0.5738188976377953 0.42618110236220474 
0.5833333333333334 0.4166666666666667 
0.6574158325750682 0.34258416742493175 
0.55078125 0.44921875 
0.6538461538461539 0.34615384615384615 
</TABLE>
</DEFINITION>
</NETWORK>
</BIF>
